{"_id":{"$oid":"58358fd0d60d31d27ed51985"},"stream_id":{"name":"location_prediction","meta_data":{"localisation_model":"lda","house":"1"}},"datetime":{"$date":"2016-11-23T12:47:12.441Z"},"value":{"tool_parameters":{"nan_value":-110.0},"vectorisation":{"sort":true,"feature_names_":["b827eb128626","b827eb1eecd0","b827eb1f4617","b827eb30ee27","b827eb541227","b827eb5b2fdd","b827eb5ca171","b827eb5ceb88","b827eb65c7d5","b827eb8ec558","b827eba3d9a7","b827ebaef0a3","b827ebbb08be","b827ebc375f1","b827ebceb75e","b827ebd107f0","b827ebd91657","b827ebdfd545"],"separator":"=","sparse":false,"vocabulary_":{"b827ebbb08be":12,"b827ebaef0a3":11,"b827eba3d9a7":10,"b827eb1eecd0":1,"b827eb541227":4,"b827eb128626":0,"b827eb5ca171":6,"b827ebd91657":16,"b827ebdfd545":17,"b827ebd107f0":15,"b827eb5ceb88":7,"b827ebc375f1":13,"b827eb1f4617":2,"b827eb65c7d5":8,"b827eb8ec558":9,"b827eb5b2fdd":5,"b827eb30ee27":3,"b827ebceb75e":14}},"experiment_interval":[[{"$date":"2016-10-19T13:35:48.117Z"},{"$date":"2016-10-19T13:39:22.837Z"}],[{"$date":"2016-10-19T12:31:23.000Z"},{"$date":"2016-10-19T12:41:41.000Z"}]],"experiment_ids_str":"1476884148117-1476884362837_1476880283000-1476880901000","fill_missing":{"default_value":-110},"performance":{"intervals":{"1476884148117-1476884362837":87,"1476880283000-1476880901000":280},"classes":["Bathroom","Bedroom 1","Bedroom 2","Hallway (Down)","Hallway (Up)","Kitchen","Living Room","Stairs","Study","Toilet"],"1476884148117-1476884362837":{"recall_macro":0.8586507936507937,"precision_macro":0.8505747126436781,"prior_train":[27,39,47,7,7,32,36,18,34,33],"f1_score_macro":0.8362233191644958,"prior_test":[9,12,10,7,8,10,9,12,8,2],"precision_micro":0.8505747126436781,"f1_score_micro":0.8505747126436781,"recall_micro":0.8505747126436781,"confusion_matrix":[[8,0,0,0,0,0,0,1,0,0],[0,12,0,0,0,0,0,0,0,0],[0,0,10,0,0,0,0,0,0,0],[0,0,0,5,0,1,0,1,0,0],[0,2,1,0,4,0,0,0,0,1],[0,0,0,0,0,9,0,0,1,0],[0,0,0,0,0,0,9,0,0,0],[1,0,1,3,0,0,0,7,0,0],[0,0,0,0,0,0,0,0,8,0],[0,0,0,0,0,0,0,0,0,2]],"model":{"vectorisation":{"sort":true,"feature_names_":["b827eb128626","b827eb1eecd0","b827eb1f4617","b827eb30ee27","b827eb541227","b827eb5b2fdd","b827eb5ca171","b827eb5ceb88","b827eb65c7d5","b827eb8ec558","b827eba3d9a7","b827ebaef0a3","b827ebbb08be","b827ebc375f1","b827ebceb75e","b827ebd107f0","b827ebd91657","b827ebdfd545"],"separator":"=","sparse":false,"vocabulary_":{"b827ebbb08be":12,"b827ebaef0a3":11,"b827eba3d9a7":10,"b827eb1eecd0":1,"b827eb541227":4,"b827eb128626":0,"b827eb30ee27":3,"b827ebd91657":16,"b827ebdfd545":17,"b827ebd107f0":15,"b827eb5ceb88":7,"b827ebc375f1":13,"b827eb1f4617":2,"b827eb65c7d5":8,"b827eb8ec558":9,"b827eb5b2fdd":5,"b827eb5ca171":6,"b827ebceb75e":14}},"fill_missing":{"default_value":-110},"classifier":{"_max_components":9,"solver":"svd","xbar_":[-90.82499999999999,-93.4892857142857,-88.72142857142856,-86.62142857142858,-87.03571428571429,-86.57500000000002,-92.79642857142858,-89.98214285714286,-91.06785714285714,-82.62857142857142,-91.84285714285714,-95.58214285714284,-92.21428571428572,-83.60714285714285,-98.19285714285714,-86.18571428571428,-85.82857142857144,-93.11785714285713],"shrinkage":null,"classes_":[0,1,2,3,4,5,6,7,8,9],"explained_variance_ratio_":[0.45654679523796915,0.20936142041365435,0.1836816736211461,0.09754030533480827,0.030029116066909913,0.014607067888261117,0.003950454611651084,0.0028559829334081606,0.00142718389219166],"means_":[[-90.92592592592592,-104.25925925925925,-97.96296296296296,-80.96296296296296,-86.22222222222223,-82.74074074074075,-109.51851851851852,-104.11111111111111,-90.62962962962963,-86.85185185185185,-103.03703703703704,-94.37037037037037,-95.92592592592592,-70.85185185185185,-94.81481481481481,-61.925925925925924,-79.51851851851852,-105.29629629629629],[-102.05128205128206,-89.3076923076923,-82.92307692307692,-83.61538461538461,-86.07692307692308,-78.8974358974359,-72.61538461538461,-72.92307692307692,-93.2051282051282,-73.17948717948718,-103.87179487179488,-110.0,-107.71794871794872,-93.02564102564102,-110.0,-96.1025641025641,-99.23076923076923,-84.58974358974359],[-88.42553191489361,-100.46808510638297,-71.38297872340425,-75.42553191489361,-70.36170212765957,-94.7872340425532,-89.1063829787234,-87.23404255319149,-107.19148936170212,-80.23404255319149,-88.55319148936171,-105.7872340425532,-99.2127659574468,-82.12765957446808,-107.65957446808511,-87.31914893617021,-91.72340425531915,-101.97872340425532],[-88.0,-82.42857142857143,-93.57142857142857,-85.42857142857143,-100.0,-82.0,-99.0,-98.0,-74.42857142857143,-85.71428571428571,-91.71428571428571,-85.85714285714286,-81.0,-75.85714285714286,-96.28571428571429,-85.42857142857143,-75.14285714285714,-81.0],[-91.28571428571429,-101.57142857142857,-81.0,-66.85714285714286,-88.0,-72.71428571428571,-87.71428571428571,-87.57142857142857,-90.57142857142857,-71.42857142857143,-96.0,-93.14285714285714,-88.28571428571429,-65.57142857142857,-104.14285714285714,-67.14285714285714,-83.14285714285714,-98.28571428571429],[-90.3125,-105.8125,-106.875,-104.6875,-90.75,-101.28125,-109.53125,-109.4375,-90.5,-101.71875,-81.71875,-64.46875,-80.25,-92.96875,-63.5,-91.46875,-81.8125,-108.0],[-87.16666666666667,-70.66666666666667,-91.16666666666667,-100.30555555555556,-91.55555555555556,-86.05555555555556,-82.30555555555556,-83.13888888888889,-74.63888888888889,-82.22222222222223,-89.80555555555556,-101.72222222222223,-89.13888888888889,-90.0,-107.0,-96.27777777777777,-82.97222222222223,-69.05555555555556],[-84.5,-95.38888888888889,-84.55555555555556,-71.66666666666667,-88.66666666666667,-79.33333333333333,-103.22222222222223,-93.77777777777777,-82.55555555555556,-79.05555555555556,-88.0,-88.94444444444444,-83.61111111111111,-67.55555555555556,-96.72222222222223,-71.44444444444444,-73.22222222222223,-96.83333333333333],[-71.08823529411765,-85.20588235294117,-81.32352941176471,-90.02941176470588,-80.29411764705883,-98.5,-97.5,-95.29411764705883,-86.32352941176471,-91.29411764705883,-68.97058823529412,-84.6470588235294,-80.8529411764706,-80.3529411764706,-86.05882352941177,-87.47058823529412,-75.91176470588235,-82.94117647058823],[-109.66666666666667,-100.75757575757575,-102.93939393939394,-87.39393939393939,-107.15151515151516,-68.96969696969697,-92.66666666666667,-82.36363636363636,-97.57575757575758,-70.42424242424242,-110.0,-105.93939393939394,-95.45454545454545,-86.54545454545455,-110.0,-87.48484848484848,-93.6969696969697,-102.36363636363636]],"coef_":[[0.05443311493542127,-0.1591167336115831,-0.3190419381952709,0.037539267255688576,0.2361929727045806,0.1674213256133428,-0.1448460620343344,-0.4666707049150159,0.1381283294640589,-0.18145117462674953,-0.4246962978862378,-0.2037799476000206,-0.180039892866288,0.17977978823162982,0.1329497662244551,0.6617407998006828,0.25429122984716207,-0.05210911348711234],[-0.41020386491629535,-0.0158839939913756,0.041758369609909446,0.2514617025922144,0.0050382903231910225,0.09020095977413264,0.35692287666308825,0.39655039794714014,0.10224092165491952,0.4983755253829438,-0.2758338315943278,-0.15972316933350583,-0.3567803606558837,-0.36048023414226826,0.0017305618390736535,-0.037742218496422585,-0.6189193655898456,0.0007135568422851598],[-0.06224597007321967,0.022891617815931346,0.3751385272913078,0.5200822914119987,0.2931189012263508,-0.3197059320930426,0.05577298291554638,-0.02540608770648949,-0.34387188345117004,0.16080587977752597,0.24055232554956538,-0.15441711746221823,-0.09165351033922323,0.07123775493240288,-0.2445897853628637,-0.0971202026860145,-0.22462108298458766,-0.22687141449903664],[0.21513253255808187,0.13711073475443972,-0.003069740147973406,-0.09368064625218073,-0.32792370380628383,0.01800683210573544,-0.1962637230657231,-0.25111579004535883,0.24072671636365853,-0.41211785019873814,-0.16586670957573366,0.2504374050974369,0.20609765941936414,0.295785391048986,-0.18273215062881681,-0.1860163728985825,0.37554217070785917,0.28896817357316085],[-0.10367125454937906,-0.15451688109351266,0.12311472920413666,0.3466703361894365,-0.04331271036199904,-0.00210880216753186,0.2372960559219096,-0.06166983513791708,-0.06130952442881501,0.17336630087609156,-0.29635594325981085,0.2395804265142251,-0.015162394662400207,0.315696025055646,-0.21922912598756072,0.3304889620492058,-0.20881853199755315,-0.1744126901679235],[0.12855030024231154,-0.19487615603901978,-0.15162270096671993,-0.4643616379358848,-0.08449424190833063,0.10606810266662203,-0.1352115051915309,-0.1760161690359983,0.024565160459770873,-0.37961541908286706,0.18684241713840508,0.47205000004522735,0.2990750436860772,-0.10713820924520084,0.8551345018114584,-0.12402629076262038,0.3692368322285648,-0.12083895122736471],[0.1696403865216297,0.3141361366444344,-0.11092707421090844,-0.5461536650080504,-0.05357935414072323,-0.01953350778704917,0.055784439491108916,0.04635619157508034,0.3911932111372647,-0.09204436556072661,0.09495393999166368,-0.11382283505997359,0.08997398947953862,-0.05860064691098024,-0.3386351004299046,-0.1134749694604031,0.13489675783530464,0.3627859923604685],[0.16769036709054397,-0.05373840287761027,0.07625496923800311,0.24004540112382414,-0.04476323690683337,-0.056609655766926906,-0.24732575353671452,-0.14343101581688053,0.11236613168413384,-0.22380845667436172,-0.018045602934872427,0.17296240591010878,0.04355628816147162,0.33254662548257263,-0.18999545560536504,0.08060937840426394,0.2710762470230496,-0.04780399029195517],[0.5869693990169059,0.15630845372178784,0.16589189939508625,-0.17300064729256837,0.05048989319425377,-0.3259715696596651,-0.21549033966835865,-0.17678355556163342,-0.0474872814867689,-0.48291985157556144,0.6282862158916344,0.15153974718472799,0.2534447166578897,0.26209073294951996,-0.02113161128509805,-0.26560383760470097,0.424276290843323,0.22727543615458112],[-0.5006806491175073,-0.16540895577253642,-0.2925419003875174,-0.028880393968729337,-0.42514795934053445,0.49356707706937497,0.03573813378414134,0.3961915968940417,-0.24508685444936004,0.4692435898559936,-0.4933421494390999,-0.11257305337276134,-0.014058159602382941,-0.23584084059361302,-0.011598006342882243,0.08459964246035874,-0.2822579020314797,-0.1460653589327525]],"scalings_":[[-0.06273244946468866,0.0372685285741325,-0.011282211657290275,0.03740349340196817,-0.007761690363620048,0.002273449381177484,0.07143658659603504,-0.0019507312419236081,0.019396056823586926],[-0.0046264731447502455,0.033966944590800414,-0.03890900065539976,0.021511271639739194,-0.0036161237958102135,0.02117695092165452,-0.035193386622899364,-0.0039710845081458055,0.017213296209265063],[-8.51863715514911e-05,0.06660276140909459,0.016844775702764617,-0.029437638416503813,-0.02369613464792398,-0.04877483378309357,-0.057494174932146515,-0.0016710903150850157,0.011803068133784608],[0.04340817980174152,0.051403866396655194,0.08166527796491245,-0.007695165931447016,-0.011476918273463673,-0.08143767628109984,0.003924682298598105,-0.10640771409422412,0.02485758766785335],[-0.006669202909293741,0.04581517668099343,0.03320773915217194,0.00771874891134323,0.09733552696021987,0.041682098811924695,-0.023615534305801853,0.02993939452292971,-0.05366563419987191],[0.021549232691340528,-0.07414112890406627,-0.009368207278584617,0.005883186895161682,-0.010863878808558226,0.013232720870900399,0.03094051162965955,-0.009660870979190469,-0.006322563312031792],[0.03294974384716334,0.007607146490214371,-0.016037966844610653,-0.02615678616525186,0.0511556291439941,-0.033132992415613745,-0.0113713202737789,0.11118753890660568,0.05741560945354459],[0.04515015651678518,-0.005511498907893653,-0.038056852783057545,-0.0503997914850566,-0.0491275739247831,-0.027798284390706786,0.06852570125188712,-0.009818729091103744,-0.0914337098157322],[-0.011779485128775804,-0.015270676430055764,-0.050009796147309174,0.04884983587503145,0.08892762701427762,-0.07022531681861631,-0.0565761821515797,-0.007599398124008112,-0.10256628808507166],[0.07435895250094936,-0.006241618810248658,0.0002052212985154047,-0.033262240309211405,-0.0029251049006118047,0.0059681527458952015,0.008341396696641613,0.05333341561062392,-0.0363026798035846],[-0.05160038467172157,0.07345730982629857,-0.014524094644905979,-0.044378244279648156,-0.0396315982519791,0.0351771572392857,0.045782404181368495,0.013822894985262872,-0.06485906537652768],[-0.036279006199428546,-0.019700062493924274,0.0005457121870060942,-0.03738115814581532,-0.03685241178381414,-0.10681037641888419,-0.040201460667265286,0.050775387910993855,0.005708134153576205],[-0.03792103470528313,-0.007429393688414713,-0.01426645294578573,-0.010848699845543314,-0.07775976248000563,0.0218583954351495,-0.04092542714342981,0.05892935308802433,0.03103583981475939],[-0.029372625686795162,0.025048647065217727,0.030104910079640376,0.05717539220819037,-0.04645980022467804,-0.031499491542494755,-0.007818101972107588,0.032032466619032224,0.0473818699850859],[-0.03448967758872691,-0.06681734033031661,0.021823875280511728,-0.08585354813952346,0.07626637917405595,-0.014915889227651061,0.06756195832382823,-0.039046123346638796,0.01969872116731666],[0.01247761867703513,-0.03626170419917844,0.04304058788279699,0.06681825097345732,0.07210294656094544,0.0265695750069271,0.045534807662619595,0.09076458010479074,-0.016751618392509417],[-0.07265666730691193,-0.013005279494956926,-0.00027670770398647557,0.04997293102017229,-0.031835867786874944,0.03904331742568838,-0.016185435737244517,-0.03548748055759875,-0.023758697043556286],[-0.013917518418463178,0.010322767148996527,-0.05559302609988426,0.03824686167799687,0.012776617439291479,-0.010451314516787361,0.05720147507373175,-0.04065418283669169,0.07110969730253443]],"priors_":[0.09642857142857143,0.1392857142857143,0.16785714285714284,0.025,0.025,0.11428571428571428,0.12857142857142856,0.06428571428571428,0.12142857142857143,0.11785714285714285],"tol":0.0001,"priors":null,"intercept_":[-53.99249161307216,-71.40780104964375,-29.460231763967528,3.508778687795111,14.398238112057829,16.506745266711704,1.2322800742035298,26.252741724878135,86.07419897368743,-167.57671911569068],"store_covariance":false,"n_components":null}},"accuracy":0.8505747126436781},"1476880283000-1476880901000":{"recall_macro":0.8865447790979706,"precision_macro":0.9464285714285714,"prior_train":[9,12,10,7,8,10,9,12,8,2],"f1_score_macro":0.8854826681427859,"prior_test":[27,39,47,7,7,32,36,18,34,33],"precision_micro":0.9464285714285714,"f1_score_micro":0.9464285714285714,"recall_micro":0.9464285714285714,"confusion_matrix":[[27,0,0,0,0,0,0,0,0,0],[0,39,0,0,0,0,0,0,0,0],[0,0,46,0,1,0,0,0,0,0],[0,0,0,4,0,0,1,2,0,0],[0,0,1,0,5,0,0,1,0,0],[0,0,0,0,0,32,0,0,0,0],[0,0,0,0,0,0,36,0,0,0],[3,0,0,1,1,0,0,13,0,0],[0,0,0,0,0,0,0,0,34,0],[0,1,0,0,3,0,0,0,0,29]],"model":{"vectorisation":{"sort":true,"feature_names_":["b827eb128626","b827eb1eecd0","b827eb1f4617","b827eb30ee27","b827eb541227","b827eb5b2fdd","b827eb5ca171","b827eb5ceb88","b827eb65c7d5","b827eb8ec558","b827eba3d9a7","b827ebaef0a3","b827ebbb08be","b827ebc375f1","b827ebceb75e","b827ebd107f0","b827ebd91657","b827ebdfd545"],"separator":"=","sparse":false,"vocabulary_":{"b827eb128626":0,"b827ebaef0a3":11,"b827eba3d9a7":10,"b827eb8ec558":9,"b827eb541227":4,"b827ebbb08be":12,"b827eb5ca171":6,"b827ebd91657":16,"b827ebdfd545":17,"b827ebd107f0":15,"b827eb5ceb88":7,"b827ebc375f1":13,"b827eb1f4617":2,"b827eb65c7d5":8,"b827eb1eecd0":1,"b827eb5b2fdd":5,"b827eb30ee27":3,"b827ebceb75e":14}},"fill_missing":{"default_value":-110},"classifier":{"_max_components":9,"solver":"svd","xbar_":[-88.4137931034483,-91.05747126436782,-87.6551724137931,-82.18390804597702,-86.91954022988506,-82.85057471264369,-92.40229885057471,-89.67816091954023,-85.98850574712645,-79.93103448275865,-91.1954022988506,-93.80459770114943,-89.1954022988506,-79.52873563218392,-95.58620689655173,-83.2528735632184,-81.65517241379311,-89.67816091954025],"shrinkage":null,"classes_":[0,1,2,3,4,5,6,7,8,9],"explained_variance_ratio_":[0.5098568505826904,0.1900113561331965,0.11975358668880248,0.10390008487977201,0.033713886983994266,0.01824067735156462,0.011459277481079043,0.007207989834993647,0.005856290063907026],"means_":[[-91.11111111111111,-100.44444444444444,-95.77777777777777,-77.88888888888889,-87.33333333333333,-80.33333333333333,-108.33333333333333,-101.33333333333333,-87.0,-82.88888888888889,-104.33333333333333,-92.77777777777777,-93.33333333333333,-70.0,-98.0,-59.55555555555556,-75.22222222222223,-100.77777777777777],[-101.0,-88.25,-84.58333333333333,-83.41666666666667,-85.08333333333333,-76.0,-71.83333333333333,-69.83333333333333,-91.58333333333333,-68.75,-105.0,-110.0,-108.08333333333333,-89.08333333333333,-110.0,-94.75,-98.58333333333333,-82.5],[-88.1,-97.3,-69.2,-75.2,-67.6,-95.2,-86.5,-86.8,-102.6,-79.2,-88.4,-105.2,-96.5,-82.3,-106.0,-86.4,-91.0,-99.5],[-91.57142857142857,-81.85714285714286,-94.28571428571429,-86.28571428571429,-99.57142857142857,-80.42857142857143,-98.14285714285714,-99.0,-76.14285714285714,-87.28571428571429,-93.28571428571429,-82.42857142857143,-76.57142857142857,-74.14285714285714,-86.57142857142857,-85.71428571428571,-73.57142857142857,-83.0],[-96.125,-99.625,-80.125,-68.125,-88.75,-68.5,-78.75,-82.5,-91.25,-63.375,-100.125,-103.25,-92.25,-72.625,-106.25,-77.25,-86.875,-91.5],[-84.8,-98.6,-105.6,-96.1,-91.1,-92.1,-110.0,-107.7,-84.9,-93.0,-77.9,-65.2,-76.1,-88.6,-61.9,-91.1,-77.2,-105.5],[-85.0,-71.66666666666667,-91.77777777777777,-92.11111111111111,-90.88888888888889,-84.66666666666667,-83.55555555555556,-80.66666666666667,-72.11111111111111,-80.55555555555556,-88.33333333333333,-99.44444444444444,-86.77777777777777,-88.77777777777777,-102.88888888888889,-95.22222222222223,-80.33333333333333,-68.66666666666667],[-82.41666666666667,-90.08333333333333,-86.08333333333333,-73.91666666666667,-91.58333333333333,-76.5,-103.83333333333333,-94.83333333333333,-78.5,-78.33333333333333,-87.25,-92.16666666666667,-83.41666666666667,-68.16666666666667,-94.16666666666667,-72.08333333333333,-72.5,-89.91666666666667],[-68.375,-87.125,-81.5,-87.75,-78.0,-97.625,-95.25,-91.625,-83.375,-90.75,-69.5,-84.75,-80.25,-79.875,-87.875,-86.875,-72.25,-82.375],[-110.0,-103.5,-94.5,-84.0,-110.0,-64.0,-80.0,-78.5,-101.5,-76.0,-110.0,-110.0,-99.5,-77.5,-110.0,-80.0,-90.5,-93.0]],"coef_":[[0.06694993094622266,-0.15929250087786878,-0.27337854705314096,-0.015675120913931636,0.12434247477160558,0.3715248474211099,-0.338799003914554,0.05381639350077807,0.02179673910376779,-0.30140616415953747,-0.23329204942035794,-0.06194372767808591,-0.3982629896158351,-0.03189402472745902,-0.15656974213422473,0.7467412710820057,0.580904142759205,0.003356630248068336],[-0.3059203855260559,-0.25517519663084115,0.44299737869534234,0.09369669486680275,0.24019680968792742,0.05180795762505914,0.3235311927224681,0.5783993252821236,0.11990428913014482,0.5267183624183531,-0.3961655353665719,-0.004853030578320278,-0.17692793732444143,-0.2659599110154391,0.14969586204179064,-0.03133526193406441,-0.6776521933920828,-0.2493531579039254],[-0.17258462226232987,-0.026954465536189163,0.7646332710888257,0.12904148735830792,0.18384145294077078,-0.44583131253050046,-0.020254699715603303,0.3468055621412211,0.03346413185859478,0.5126684431251306,0.03852388509249412,-0.1041295982835231,0.12011973915402924,-0.3967731576553002,-0.28423341481337433,-0.06663492600542065,-0.5409061832586134,-0.7916762693725478],[-0.15069125234783765,0.2524285788747661,-0.32695931394581146,-0.016298956099544584,-0.1754482656613243,0.14244087371036587,0.04544272214646559,-0.5585871996968326,-0.03587512306199219,-0.6056514221218562,-0.06690996964413409,0.07644356223295967,0.18147474740356953,0.628743581319998,0.27064511793404533,-0.48458375804596016,0.4512215158883193,0.5566189221431181],[-0.2716545865072642,-0.5094398897052607,0.3737837585072286,0.1804547752995401,-0.06311792089966825,0.12899313418602823,0.3457690263925728,0.33535014063110646,-0.059917844742098485,0.5218482365091546,-0.30224232993878647,0.061865162125426684,-0.040155742528434187,-0.014739332469835345,-0.03323432173240113,0.1589119311991681,-0.36307973143554806,-0.2552433572818093],[0.06135636208979542,0.2985268835582156,-0.4959243544815739,-0.17181852871382675,-0.039868888012648006,0.2325449761377556,-0.14637748629532565,-0.5600429259521353,-0.22641136488871103,-0.2245778696006243,0.28900247164387594,0.13130641440531,0.38462944302550905,-0.1191881739026274,0.4268824168351921,-0.5478642293645621,0.2209753766238134,-0.13257099322840316],[0.19592084914483887,0.32546612385057333,-0.3748895669784414,-0.1414341675693691,0.03766919829767594,-0.2897256502254543,0.11477159299530398,-0.19117775973455747,0.15934886912901783,-0.12288494967657851,0.18219981865984972,-0.14228510370905736,0.2334846702738354,-0.05742840835950275,-0.08079187737084872,-0.05014549633680868,-0.0029691628395633377,0.5725896816177457],[0.20919792281870064,0.019344891990964928,-0.10895727785742909,0.07767885087359613,-0.2048266570950753,0.07227559314056439,-0.27250163049164594,-0.09909678062636891,0.06876715262582779,-0.26539313035055045,0.07950812908167021,-0.001569782723151319,-0.23988801411549868,0.2757830867081188,-0.09495683744064617,0.186269379445109,0.33429532317337524,0.16445798777155524],[0.539925152554337,0.2776515075578769,-0.24219756154972372,-0.1670549466575793,-0.07061517721734593,-0.3740637498817363,-0.08023417485726861,-0.2385157980080606,-0.03380618717576435,-0.3212924612413967,0.5443490562507773,0.10702983519044566,0.0880092817686707,0.19026365272145818,-0.21328428185728465,-0.05670389602918118,0.18151495549591418,0.42736131212779793],[-0.5921053142737946,-0.6470080631201995,0.18743413605867165,-0.10392923770938342,-0.5121349467268037,0.4355733947860802,0.31391797215250483,0.3762155276187715,-0.48198866404435975,0.21846262858865262,-0.24201431904363133,-0.12144991663679755,-0.10792353809248309,0.02011873689840418,0.06526463164644919,0.29542109791119076,0.2060716429972703,-0.09778911648202374]],"scalings_":[[-0.044547236917924234,0.00826809432922363,-0.06510986882007826,-0.03214148430583388,-0.03195245871596248,0.09439271562774128,-0.06316432497273414,0.010066714998411443,-0.002386285883630493],[-0.053119593156744714,0.04889588290960765,-0.02037300149214043,-0.007837292051612117,-0.029679570966861933,-0.07658596082536374,-0.012684717233584065,0.0014728781694033119,0.034281724104488875],[0.08678650671453392,0.026510033387374676,-0.0037818354396333483,-0.06019950186168235,0.07597983095131645,-0.05322175614139585,-0.02017598237470805,-0.05850128951720747,0.03884807558298821],[0.022124576329754096,-0.012304817194473143,-0.001816826906423022,-0.008988542830239069,0.03475160768929805,-0.03429368964134208,-0.0684126323081575,0.020918836897347352,0.011063942034468465],[0.01998801669052175,0.02045274759099606,-0.0035496915025585206,-0.0165572722492498,-0.09687523357209099,-0.053832864367356965,-0.03828487640553008,0.003208208117267992,-0.10937052301947042],[-0.00610797162264231,-0.07440979978110028,0.07228755005402715,0.042691244107504155,-0.03467819705846025,0.01843986543814234,-0.030850317210664835,-0.04033609849931203,-0.01831413941171341],[0.03394106508104202,0.03651594343085201,0.01608848660881183,0.06405814450661522,0.043546966618360834,0.0369077918877171,0.030021364694565175,0.025575809835214406,-0.09055500161262772],[0.08480044962783498,-0.006920393617722506,-0.022794788623977384,-0.009661559020451576,-0.038173997901085194,0.04594901023697261,-0.013137459960509856,-0.06404736233368087,0.029693141260825114],[0.008632784927453693,0.006072506598614726,-0.043236349871022886,0.010210393681636176,-0.03325029271798082,-0.05116782532124674,-0.08750557693588108,0.027285015250659357,0.009396864082927135],[0.08454245074876372,0.041566764110030796,0.028580171460019038,-0.022317127233242723,-0.004382413583710524,0.05646647920454976,-0.010716119282328528,0.10351676274623849,0.026403305785413063],[-0.048421350036936775,0.04560899928728438,-0.026564065229196025,-0.048594757657174296,0.02309815331912508,0.08025887839311818,0.03977507224437886,0.015379281732961594,0.058813982349025934],[-0.008521262153850427,0.0019354875570483656,0.020393003673689108,-0.0006406408881362004,0.024255333092194176,0.03654368265884898,-0.05662108481227941,-0.042582415991902045,-0.07133901965898211],[-0.023051637114854518,0.06594826386339428,0.03728381732569317,0.0008036512707412396,0.03815426587390271,-0.024843552121948206,0.0823534739522162,0.12021486089702789,-0.029463859786515875],[-0.03832864577431851,-0.03624867904115319,-0.026697732791044197,0.04847239538162106,0.12800847190642164,-0.02714184764474747,-0.05967002609694754,-0.09522395853042569,-0.04667369749036354],[-0.014221352049399142,0.010261743628794614,0.08230029815902011,0.0517988169429303,-0.011045527234760091,-0.0169186909335123,-0.058242597431537826,-0.05060666701260049,-0.0020906977227584146],[0.027369121530164076,-0.09440139867106703,-0.07591430750102923,-0.024367713054091574,-0.08720087023836955,0.07451430003846167,0.053779260183904956,0.042627998972573716,-0.01825775125027816],[-0.08031911576540846,-0.08960161775647435,-0.016349549309998615,0.0031115205593720534,0.001217757908186008,-0.014430417486019146,0.08236378692519525,-0.03446344969253588,-0.00044774290286271265],[-0.064075925786426,-0.010085528909009918,-0.07953757683102115,0.12176871469879816,0.018467943555053414,0.03915178115567796,-0.0009467460456120218,-0.026879961961027217,-0.06445098307475869]],"priors_":[0.10344827586206898,0.13793103448275865,0.1149425287356322,0.08045977011494254,0.09195402298850576,0.1149425287356322,0.10344827586206898,0.13793103448275865,0.09195402298850576,0.02298850574712644],"tol":0.0001,"priors":null,"intercept_":[-31.47695608238848,-9.818481944533545,-86.29509700301605,-1.312434119530085,-8.244184741107663,-76.72081788529394,21.79026787840399,3.0928672361540457,33.24640207001387,-110.61217810697099],"store_covariance":false,"n_components":null}},"accuracy":0.9464285714285714}},"classifier":{"_max_components":9,"solver":"svd","xbar_":[-90.25340599455042,-92.91280653950956,-88.46866485013624,-85.56948228882833,-87.00817438692098,-85.69209809264305,-92.70299727520435,-89.91008174386921,-89.86376021798365,-81.98910081743868,-91.68937329700273,-95.1607629427793,-91.49863760217983,-82.64032697547685,-97.57493188010899,-85.49046321525886,-84.83923705722071,-92.3024523160763],"shrinkage":null,"classes_":[0,1,2,3,4,5,6,7,8,9],"explained_variance_ratio_":[0.4523221073800422,0.21209433320288137,0.16319006054490945,0.11089811269808378,0.030408979707874827,0.01864600486855621,0.006430338547276715,0.0038290773306330537,0.0021809857197424842],"means_":[[-90.97222222222223,-103.30555555555556,-97.41666666666667,-80.19444444444444,-86.5,-82.13888888888889,-109.22222222222223,-103.41666666666667,-89.72222222222223,-85.86111111111111,-103.36111111111111,-93.97222222222223,-95.27777777777777,-70.63888888888889,-95.61111111111111,-61.333333333333336,-78.44444444444444,-104.16666666666667],[-101.80392156862744,-89.05882352941177,-83.31372549019608,-83.56862745098039,-85.84313725490196,-78.2156862745098,-72.43137254901961,-72.19607843137256,-92.82352941176471,-72.13725490196079,-104.13725490196079,-110.0,-107.80392156862744,-92.09803921568627,-110.0,-95.7843137254902,-99.07843137254902,-84.09803921568627],[-88.36842105263158,-99.91228070175438,-71.0,-75.3859649122807,-69.87719298245614,-94.85964912280701,-88.64912280701755,-87.15789473684211,-106.3859649122807,-80.05263157894737,-88.52631578947368,-105.6842105263158,-98.73684210526316,-82.15789473684211,-107.36842105263158,-87.15789473684211,-91.59649122807018,-101.54385964912281],[-89.78571428571429,-82.14285714285714,-93.92857142857143,-85.85714285714286,-99.78571428571429,-81.21428571428571,-98.57142857142857,-98.5,-75.28571428571429,-86.5,-92.5,-84.14285714285714,-78.78571428571429,-75.0,-91.42857142857143,-85.57142857142857,-74.35714285714286,-82.0],[-93.86666666666666,-100.53333333333333,-80.53333333333333,-67.53333333333333,-88.4,-70.46666666666667,-82.93333333333334,-84.86666666666666,-90.93333333333334,-67.13333333333334,-98.2,-98.53333333333333,-90.4,-69.33333333333333,-105.26666666666667,-72.53333333333333,-85.13333333333334,-94.66666666666667],[-89.0,-104.0952380952381,-106.57142857142857,-102.64285714285714,-90.83333333333333,-99.0952380952381,-109.64285714285714,-109.02380952380952,-89.16666666666667,-99.64285714285714,-80.80952380952381,-64.64285714285714,-79.26190476190476,-91.92857142857143,-63.11904761904762,-91.38095238095238,-80.71428571428571,-107.4047619047619],[-86.73333333333333,-70.86666666666666,-91.28888888888889,-98.66666666666667,-91.42222222222222,-85.77777777777777,-82.55555555555556,-82.64444444444445,-74.13333333333334,-81.88888888888889,-89.5111111111111,-101.26666666666667,-88.66666666666667,-89.75555555555556,-106.17777777777778,-96.06666666666666,-82.44444444444444,-68.97777777777777],[-83.66666666666667,-93.26666666666667,-85.16666666666667,-72.56666666666666,-89.83333333333333,-78.2,-103.46666666666667,-94.2,-80.93333333333334,-78.76666666666667,-87.7,-90.23333333333333,-83.53333333333333,-67.8,-95.7,-71.7,-72.93333333333334,-94.06666666666666],[-70.57142857142857,-85.57142857142857,-81.35714285714286,-89.5952380952381,-79.85714285714286,-98.33333333333333,-97.07142857142857,-94.5952380952381,-85.76190476190476,-91.19047619047619,-69.07142857142857,-84.66666666666667,-80.73809523809524,-80.26190476190476,-86.4047619047619,-87.35714285714286,-75.21428571428571,-82.83333333333333],[-109.68571428571428,-100.91428571428571,-102.45714285714286,-87.2,-107.31428571428572,-68.68571428571428,-91.94285714285714,-82.14285714285714,-97.8,-70.74285714285715,-110.0,-106.17142857142858,-95.68571428571428,-86.02857142857142,-110.0,-87.05714285714286,-93.51428571428572,-101.82857142857142]],"coef_":[[0.022147471262535613,-0.1367076664830736,-0.317157768814236,0.022037168790180292,0.1983527250905269,0.23893841014871064,-0.20853115001686354,-0.3094234575999638,0.11216483603711028,-0.19551791758494136,-0.3612988325078619,-0.19262261895493052,-0.19018521761035453,0.09755309171555385,0.05604661564731298,0.6138286185088272,0.2995035754409063,-0.02478332036978259],[-0.33998117030009734,-0.05811605086220686,0.12490804351134205,0.23680373193139254,0.06434530396848057,0.05075145532974661,0.32822444724471267,0.3836736248485879,0.08928977633159867,0.433308034207062,-0.2491020127499201,-0.07587163358658464,-0.2900153262824792,-0.30811460580574174,0.040563460704829885,-0.01612424298859377,-0.5792584972432274,-0.04887269001984699],[-0.07313204628692936,0.01442062642880632,0.3958970151399826,0.4141180520476107,0.256214850474282,-0.308771084525018,0.05357103585525654,0.04803749552119314,-0.24427116526027454,0.21564087484255742,0.18601844329008846,-0.13089970018582373,-0.08507692330729227,-0.0037954642331654667,-0.2153643577678539,-0.09856562197575665,-0.2530670608507557,-0.2662934465352736],[0.07739785694292317,0.163260536959517,-0.036194048613077096,-0.11492930745923392,-0.3072850290218902,0.05755879862950837,-0.11765669077966126,-0.2940958788204718,0.12286823494840902,-0.41793563984342536,-0.17447017668749643,0.19839721034044933,0.21917566205946618,0.3540548414025544,9.434572028740237e-05,-0.22236778742948515,0.36721106347127325,0.2822543320176817],[-0.17550860588961625,-0.240809918086323,0.12731814055679191,0.29888477265441965,-0.06453164163811338,0.05370416723999329,0.28080131786806084,0.051871805014590475,-0.055421074844867045,0.3472573084992051,-0.2953083019257967,0.10564692383872382,-0.05196731379868994,0.17168441195532824,-0.10885242683880267,0.2198306248971433,-0.2855669267598165,-0.12674484728410373],[0.09568508374495467,-0.09297094927474224,-0.22227260937396717,-0.3707481877559269,-0.09839672974107977,0.16725435110498704,-0.12765327056497103,-0.19856589582424375,-0.029575014694917037,-0.32074530521934835,0.18217613159444077,0.3649843778014382,0.24203802355719445,-0.11040072683935886,0.688245862144091,-0.20530204098868834,0.299585985018393,-0.08238544506469589],[0.17449792245549967,0.2995325415858637,-0.1276403747250485,-0.43664021162541683,-0.008271295184909976,-0.09367580463425614,0.07381057171479878,-0.015773518788191526,0.30462273812672663,-0.11772790299409899,0.1156037832690987,-0.09486505674824824,0.11619603690350112,-0.032797895923550806,-0.2708340665103579,-0.08058059916934168,0.1114577327247641,0.3519791830613465],[0.1376628068816495,-0.03767628708657826,0.012770053840972554,0.155887569297929,-0.0902160031957592,0.0020738245982968003,-0.24412676774642364,-0.1258045540884857,0.12835173724684137,-0.20208637796053602,-0.007764962727300954,0.05786814524312022,-0.023462860745475357,0.2853275302801349,-0.13881031011338105,0.08032159106966294,0.25700536730816703,0.013918473027578232],[0.5244401079193624,0.18390524114503173,0.06588878060646895,-0.19031774112650643,0.0194586790066137,-0.3159101824806907,-0.14491807153532696,-0.1705199487698896,-0.043040709548359854,-0.37893583511717543,0.5438346626258644,0.10657674395312725,0.17206389676127024,0.23412259050457931,-0.058596886832216824,-0.2380182702786845,0.3316491532241254,0.2623950099877912],[-0.45052092335703325,-0.22222845378673547,-0.19979942219659644,-0.02321049142229456,-0.3817858154790314,0.43414858656327104,0.017132089248875156,0.3473876580273481,-0.287594581483054,0.4010742748707482,-0.3851873819153532,-0.096279948965032,0.06516194426782511,-0.2112570791178803,-0.007788439163289144,0.11412481522955442,-0.19743453352058685,-0.20868496907168008]],"scalings_":[[-0.05632426242900238,0.03944189073505797,0.011262102001321321,0.03241915994690736,-0.0009316853845274369,0.004480005863518226,-0.07792522858277989,-0.006646686528359591,-0.023473373063499572],[-0.01610588662950899,0.042387104629318315,-0.023647248249236058,0.022048493145942174,0.0014858387101159588,0.023360874721409436,0.06187393988606801,-0.005702810539247001,-0.010569610042630826],[0.02076737476206007,0.05649965106589286,0.03603467982828315,-0.026392836333851494,-0.030283331487037806,-0.05183899325492385,0.057810211649782485,-0.00284981393773596,0.009737362743228112],[0.04900242772096436,0.014812797110751523,0.07332599671253846,-0.007334485540298251,-0.00551420225997521,-0.07561062613991916,0.03847864539735029,-0.0772629831341381,-0.022575430765154426],[0.004729013469653288,0.03316195251925215,0.039939821391662134,0.004803584532732175,0.10520241307333159,0.03788364166014579,0.009900988614599662,0.030806807543093857,0.03953865726421416],[0.010225184046919128,-0.0763187893972538,-0.026843032032542607,0.001082794620412941,0.0036776989544251987,0.007852571630353298,-0.016822467613110244,-0.02022097867715538,-0.011093768283137352],[0.03227219924403736,0.01910996276663111,-0.026714353879660528,-0.023978242583618945,0.03217255134804197,-0.044949062001096496,-0.019143333133965757,0.119201936474266,-0.014349278710189995],[0.04673255534257877,0.007455504636170235,-0.03280494663947689,-0.03502089197705453,-0.028493211971194525,-0.0029658866125673398,-0.07223817143016462,-0.08027265974893784,0.02215854847350807],[-0.012226637622110867,0.005414451398600733,-0.03646317512248467,0.04763535873268743,0.08325080689361428,-0.05563510591737168,0.023419867937507253,-0.025216737074259907,0.13093636260689678],[0.07161391588177111,0.0005753691711674624,-0.006786388430691775,-0.03472022075116451,-0.013476260897890217,0.003257653746691856,-0.04745071018619349,0.05447032778335067,0.05596356209861681],[-0.04462429266665132,0.06901542469019806,0.013630794114019497,-0.035113799466884935,-0.03839219244992324,0.03940568115150553,-0.06105234547138022,-0.027348305732615177,0.04929764375791674],[-0.027654377376020844,-0.010659237424573342,-0.007414996080740054,-0.03951083366624702,-0.022008236327532783,-0.08864143253740989,-0.0034059721663136657,0.024387056443975076,0.015461925337599068],[-0.0322864886101715,-0.0016629003256031741,-0.01837746451650395,-0.014339273110672512,-0.07890439949250995,0.02422794796313358,0.02748874229813723,0.08671534433081353,0.005011877185411433],[-0.026631339950662584,0.010230058530096018,0.033821525771715634,0.05214150859730049,-0.05541730035147334,-0.05836106684081771,0.016010378373158562,0.03182007975453255,-0.044741827960386525],[-0.027750302414243786,-0.053595616055624004,-0.006425748601407857,-0.08155746319467148,0.06905623302475294,-0.03964325997878994,-0.015858367339873936,-0.027633414000858024,-0.05186456372486021],[0.01851610167177191,-0.04729010811465921,0.028061540867665005,0.06413548284893217,0.0701056645681097,0.04208414128941645,-0.07756839344312526,0.05054993817276436,0.015541676148795161],[-0.07117819925969716,-0.022258545277015318,0.011474233197133322,0.05042189895101301,-0.027469203190976423,0.0410864257908831,0.0214881362076292,-0.018657054681640955,-0.013966147417825531],[-0.02664185433402112,0.023891446921157404,-0.04632418622988912,0.04981641591900668,0.013096913479469277,-0.023985962286330778,-0.030008166524376795,-0.006670066367409227,-0.09295011631539597]],"priors_":[0.09809264305177112,0.13896457765667575,0.1553133514986376,0.03814713896457766,0.04087193460490463,0.11444141689373297,0.1226158038147139,0.08174386920980926,0.11444141689373297,0.09536784741144415],"tol":0.0001,"priors":null,"intercept_":[-52.66329310614054,-42.51089560702224,-30.774110284485356,0.02674283230493657,0.32431437686986797,-7.434538061186018,9.443617001459454,9.325334945542602,62.565862920091114,-147.55689716438934],"store_covariance":false,"n_components":null},"label_encoder":{"classes_":["Bathroom","Bedroom 1","Bedroom 2","Hallway (Down)","Hallway (Up)","Kitchen","Living Room","Stairs","Study","Toilet"]}}}
